Language model created by QuickLM on Sat Jun  1 05:49:16 EDT 2019
Copyright (c) 1996-2010 Carnegie Mellon University and Alexander I. Rudnicky

The model is in standard ARPA format, designed by Doug Paul while he was at MITRE.

The code that was used to produce this language model is available in Open Source.
Please visit http://www.speech.cs.cmu.edu/tools/ for more information

The (fixed) discount mass is 0.5. The backoffs are computed using the ratio method.
This model based on a corpus of 7 sentences and 11 words

\data\
ngram 1=11
ngram 2=16
ngram 3=15

\1-grams:
-1.0122 </s> -0.3010
-1.0122 <s> -0.2290
-1.5563 BACK -0.2566
-1.8573 CAN -0.2698
-1.1584 GO -0.2290
-1.3802 I -0.2825
-1.5563 LEAVE -0.2566
-1.5563 OUT -0.2566
-1.3802 TO -0.2566
-1.3802 WANT -0.2825
-1.8573 YOU -0.2950

\2-grams:
-0.8451 <s> GO -0.0792
-0.6690 <s> I 0.0000
-1.1461 <s> LEAVE 0.0000
-1.1461 <s> YOU 0.0000
-0.3010 BACK </s> -0.3010
-0.3010 CAN GO -0.2041
-1.0000 GO </s> -0.3010
-0.6990 GO BACK 0.0000
-0.6990 GO OUT 0.0000
-0.3010 I WANT 0.0000
-0.3010 LEAVE </s> -0.3010
-0.3010 OUT </s> -0.3010
-0.4771 TO GO -0.1461
-0.7782 TO LEAVE 0.0000
-0.3010 WANT TO 0.0000
-0.3010 YOU CAN 0.0000

\3-grams:
-0.6021 <s> GO BACK
-0.6021 <s> GO OUT
-0.3010 <s> I WANT
-0.3010 <s> LEAVE </s>
-0.3010 <s> YOU CAN
-0.3010 CAN GO BACK
-0.3010 GO BACK </s>
-0.3010 GO OUT </s>
-0.3010 I WANT TO
-0.6021 TO GO </s>
-0.6021 TO GO OUT
-0.3010 TO LEAVE </s>
-0.4771 WANT TO GO
-0.7782 WANT TO LEAVE
-0.3010 YOU CAN GO

\end\
